4.68978 4.05124 2.95939 1.34602 -1.16098 -3.0139 4.34336 -5.19144 0.253884 4.99764 
-5.43082 2.11794 2.72895 -1.05885 -4.33946 5.37272 -0.388392 3.1477 1.00779 4.4388 
-4.40113 -0.753763 1.84225 -5.25256 -1.36683 -2.29541 5.04554 2.29257 2.29086 -2.71636 
-2.92346 2.9272 -4.95191 2.97507 4.71163 -2.28172 -3.90001 1.00654 3.80078 -2.01745 
-4.19409 -5.3554 2.12494 -0.678392 0.325196 -4.90385 -3.5388 -0.916638 -4.64982 -1.62009 
-0.728375 -4.39595 -3.11752 5.22829 5.00949 -5.35819 4.20333 -3.93209 -2.21672 -1.25217 
4.27581 2.5724 0.787818 2.4682 -5.13123 0.256252 -2.89231 5.22359 3.59043 2.56827 
4.62623 1.67383 2.81737 -1.70157 1.88833 0.617774 -4.68155 -5.34559 -4.45354 -5.37413 
3.20039 -1.66351 -4.27484 -5.42877 4.7629 -0.0763623 1.29536 1.27015 -0.0448743 1.78903 
-1.15495 3.97381 2.16241 5.16037 4.56994 0.713787 -0.141168 1.85972 1.32977 5.21926 
-0.604725 -2.28694 5.3628 -5.55749 -4.13279 -5.37075 -2.54506 5.66612 5.30935 -3.11775 
5.73234 0.246454 0.987663 5.59114 -1.41675 -3.29192 -2.90561 1.85186 -3.26355 -3.32467 
-4.62589 4.36647 2.24827 2.04573 -0.432251 1.45734 5.34005 -1.51986 2.97878 -5.17087 
-2.89792 -3.1503 -5.7699 2.46432 0.487233 0.591126 -4.28386 -0.38896 -5.71791 -4.85901 
1.60677 4.11755 3.00253 5.801 -0.340624 -0.138257 5.28883 -2.32442 3.9848 -0.151873 
-0.720484 5.72187 4.0678 1.56193 5.47215 3.33956 5.20535 0.313222 5.33893 3.04007 
4.06194 -3.02064 2.99912 -4.25524 0.889607 4.65984 -4.10178 4.13337 -4.67967 -0.48012 
-3.59463 5.52465 -5.37209 -1.98745 2.57878 -1.31228 0.593836 -4.93864 3.09032 1.62757 
5.32818 -4.75898 -0.260573 -2.73022 -3.97364 -0.0663716 -3.02171 -5.52786 -1.16619 5.54354 
-2.9105 -1.97134 -5.06123 1.19231 1.74963 3.4338 -5.10834 3.03036 -1.26438 -4.89751 

-0.0146589 -4.75902 1.92386 3.38226 5.13776 3.52085 -3.47126 5.24988 -4.63641 -3.3677 -0.236295 -5.62664 -4.13461 5.1619 0.545749 -4.30392 -2.54596 -2.44522 0.974987 0.34703 0.356362 
2.96591 -1.9591 5.7493 1.95689 -0.133635 2.6156 4.01011 1.27425 -4.70967 -0.904433 -3.37775 5.04982 4.22741 1.68273 -2.11439 2.17658 -0.258927 5.82254 0.28111 1.41037 -4.04445 
2.08056 -3.99309 -4.35493 -5.26378 -2.1829 -0.630918 -2.40356 2.53591 3.5588 -2.5073 -2.72284 4.04825 6.19556 2.76615 -2.11946 5.03249 1.7036 -3.62371 2.23303 1.91114 -0.385165 
4.92145 -5.48256 -2.71303 -4.18576 0.766197 0.872949 2.46273 2.67454 -1.03904 3.05167 3.31422 1.68255 -4.46789 2.26064 -2.47748 5.07984 2.07947 1.16825 -3.80557 -3.75295 -3.9988 
-1.30864 -3.53932 -6.10248 -2.00457 -4.88093 4.76101 3.02582 1.8527 -4.23053 2.61543 1.9599 1.81122 -2.22267 2.36279 3.93595 4.33709 -3.77763 -4.5021 -3.38025 -5.54995 -0.232095 
-2.98495 0.861283 2.01224 0.225038 -1.82082 5.15324 3.9162 -3.81663 0.802532 5.00152 -3.37388 5.21067 -5.78037 4.96871 -3.70963 1.10224 -5.4768 1.52754 2.74554 -3.10281 2.4287 
0.043066 -1.00056 -3.43649 -4.84801 1.14649 2.42638 -5.84811 1.40173 2.12812 0.393275 -1.36559 -0.866198 2.16345 -0.148319 -5.22942 -4.50149 2.33387 -1.67725 -5.484 4.34672 3.06558 
0.627966 -2.54641 1.16041 5.18875 -3.54071 -1.87365 -1.47146 -3.38859 -2.82871 1.79448 3.93622 4.40237 -3.19201 -3.05459 3.27233 -3.37597 -2.17547 -2.30856 3.5862 -2.08793 -6.44364 
-5.18451 0.0268144 0.118362 5.37577 1.41088 3.53601 3.00714 -1.73438 2.15364 -2.33447 -5.88631 5.07646 -3.72305 3.29881 -5.5793 1.8654 -2.38826 -0.997277 5.96012 2.01994 -1.4667 
1.20981 0.111313 -2.92778 1.49103 1.12031 -3.42334 -1.29334 6.22312 -2.6767 -3.20994 3.37648 0.5877 3.1788 -1.07365 -0.0529632 1.20545 4.5377 -1.03876 -3.74671 -3.53648 0.409694 

3.22303 -3.22655 0.275137 -2.90267 -0.908161 2.23125 1.03326 -2.64032 3.57675 -3.13661 -2.40787 

